-1.919651627540588379e-01 -1.030989438295364380e-01 -6.437029689550399780e-02 -2.276294305920600891e-02 -2.599360048770904541e-02 -1.098794192075729370e-01 1.544094085693359375e-01 2.816009521484375000e-01 -7.763031125068664551e-02 7.851827144622802734e-02 1.227497085928916931e-01
-1.882697269320487976e-02 -2.943262830376625061e-02 4.253688268363475800e-03 1.444335561245679855e-02 -2.386311441659927368e-02 1.085361838340759277e-02 1.437914073467254639e-01 2.496884018182754517e-01 3.048260882496833801e-02 1.509348116815090179e-02 1.825680956244468689e-02
2.245670557022094727e-01 -1.836772635579109192e-02 4.387205699458718300e-04 1.954190991818904877e-02 -4.249005578458309174e-04 -4.703319817781448364e-02 5.067631602287292480e-02 1.620123982429504395e-01 -5.796625465154647827e-02 4.760832525789737701e-04 -2.445647027343511581e-03
5.200499296188354492e-01 -2.403512597084045410e-02 1.088042836636304855e-02 1.420620828866958618e-03 -1.067040860652923584e-02 -4.049610346555709839e-03 1.205671671777963638e-02 2.492379397153854370e-02 2.561164461076259613e-02 4.455473972484469414e-04 1.418839674443006516e-04
