-2.756410241127014160e-01 -2.126276865601539612e-02 3.537012264132499695e-02 8.034072816371917725e-02 7.559055089950561523e-02 -3.750539943575859070e-02 2.138189375400543213e-01 3.732289969921112061e-01 6.309637427330017090e-02 -3.588475286960601807e-03 2.288106083869934082e-02
1.111452430486679077e-01 -2.385304681956768036e-02 7.290248759090900421e-04 1.252828352153301239e-02 -2.123117074370384216e-02 -1.942496746778488159e-04 1.085956916213035583e-01 2.370853573083877563e-01 4.244703054428100586e-02 1.336902379989624023e-02 1.909037469886243343e-03
3.233374357223510742e-01 -1.705047674477100372e-02 1.041945070028305054e-04 2.092824876308441162e-02 -5.238775163888931274e-03 -2.026748657226562500e-02 1.936234161257743835e-02 1.367837488651275635e-01 2.771980501711368561e-02 4.961537197232246399e-04 -8.071871474385261536e-03
5.159188508987426758e-01 -1.249128952622413635e-02 4.949061200022697449e-03 2.330062445253133774e-03 -4.937388468533754349e-03 -8.544212207198143005e-03 -6.691606715321540833e-03 5.274679511785507202e-02 -1.150816679000854492e-04 2.203094772994518280e-03 -1.771904644556343555e-03
