-3.113137483596801758e-01 -7.409343123435974121e-02 -1.437991298735141754e-02 5.689366161823272705e-02 2.076810970902442932e-02 -5.790653824806213379e-02 1.749728173017501831e-01 3.252185583114624023e-01 4.583659768104553223e-02 4.349740594625473022e-02
4.350417479872703552e-02 -2.547778375446796417e-02 -5.764140747487545013e-03 1.650254055857658386e-02 -1.812763325870037079e-02 1.410448458045721054e-04 1.090113371610641479e-01 2.522026598453521729e-01 5.987124890089035034e-02 1.830229163169860840e-02
3.373100757598876953e-01 -1.598893478512763977e-02 1.489797374233603477e-03 1.089999079704284668e-02 -7.347012870013713837e-04 -1.105722598731517792e-02 6.470660679042339325e-03 1.241452321410179138e-01 3.128104284405708313e-02 2.461376599967479706e-03
4.515475630760192871e-01 -9.456757456064224243e-03 1.314403489232063293e-03 2.270946977660059929e-03 -2.648771973326802254e-03 6.292088422924280167e-03 -4.060552455484867096e-04 4.966092109680175781e-02 -2.679463103413581848e-02 2.532421378418803215e-03
