-3.794102072715759277e-01 -7.689509540796279907e-02 -5.858061462640762329e-02 4.267240315675735474e-02 -1.411849446594715118e-02 -9.101221710443496704e-02 2.014169096946716309e-01 3.607067465782165527e-01 1.055182516574859619e-01 6.471005082130432129e-02
4.254990443587303162e-02 -3.618433605879545212e-03 -1.131685636937618256e-02 2.344155311584472656e-02 -1.815013214945793152e-02 -1.082982402294874191e-02 1.346671879291534424e-01 2.729918658733367920e-01 7.850439101457595825e-02 1.217332854866981506e-02
3.289283215999603271e-01 -7.715614512562751770e-03 -1.328714424744248390e-03 4.975369200110435486e-03 -1.501510385423898697e-03 -1.403021067380905151e-02 1.923545449972152710e-02 1.254632771015167236e-01 3.481898829340934753e-02 4.244644194841384888e-03
5.114033222198486328e-01 -1.812939532101154327e-02 1.458605052903294563e-03 -2.448535524308681488e-04 5.926908459514379501e-03 -6.503758952021598816e-03 -1.118681579828262329e-02 5.567631125450134277e-02 -6.084442138671875000e-02 1.241422258317470551e-03
