-4.392492771148681641e-01 -4.462470486760139465e-02 -2.924609370529651642e-02 7.347686588764190674e-02 2.791167423129081726e-02 -4.557982087135314941e-02 2.639063894748687744e-01 4.299109578132629395e-01 1.334426999092102051e-01 3.019921109080314636e-02
-5.568544939160346985e-02 -2.746936120092868805e-02 -1.466760411858558655e-02 3.097894415259361267e-02 -1.611101813614368439e-02 6.372482515871524811e-03 1.914176940917968750e-01 3.294482827186584473e-01 7.387098670005798340e-02 9.292239323258399963e-03
3.217542171478271484e-01 -1.744724996387958527e-02 -2.648983383551239967e-03 1.291269995272159576e-02 -3.512329887598752975e-03 -2.874311991035938263e-02 3.615624457597732544e-02 1.771212816238403320e-01 5.762013792991638184e-02 8.646982605569064617e-04
4.508660733699798584e-01 5.897111259400844574e-04 -3.458372782915830612e-03 4.811496939510107040e-03 -9.872042573988437653e-05 -7.944109849631786346e-03 -1.343402452766895294e-02 6.213622912764549255e-02 -1.298496872186660767e-02 1.747608301229774952e-03
