-1.915796250104904175e-01 -9.344747662544250488e-02 -2.797723934054374695e-02 1.762597821652889252e-03 1.698497869074344635e-02 -6.588324904441833496e-02 1.482667624950408936e-01 3.371604681015014648e-01 -4.238195344805717468e-02 4.727393388748168945e-02 9.825272858142852783e-02
2.550255134701728821e-02 -3.428014460951089859e-03 8.574035018682479858e-03 1.468754373490810394e-02 -2.007702551782131195e-02 1.264254096895456314e-02 1.411347687244415283e-01 2.409705072641372681e-01 3.202537447214126587e-02 1.079468056559562683e-02 1.103649288415908813e-02
2.265568673610687256e-01 -1.246637105941772461e-02 -6.463280878961086273e-04 2.106755599379539490e-02 -8.134348317980766296e-04 -2.668568678200244904e-02 3.870019316673278809e-02 1.465380787849426270e-01 -9.888950735330581665e-03 6.768052116967737675e-05 -2.796456683427095413e-03
5.533668994903564453e-01 -2.124890685081481934e-02 7.780954241752624512e-03 4.529306665062904358e-03 -1.015869807451963425e-02 -1.181413698941469193e-02 -2.302967943251132965e-03 2.366552315652370453e-02 2.462351694703102112e-02 6.820603739470243454e-04 -7.661167182959616184e-04
