-3.544428348541259766e-01 -2.498293295502662659e-02 1.841230317950248718e-03 9.135744720697402954e-02 3.474545478820800781e-02 -4.025154933333396912e-02 2.103258073329925537e-01 3.601649999618530273e-01 6.717392802238464355e-02 2.137203142046928406e-02
1.362003386020660400e-02 -1.209586579352617264e-02 -1.155303325504064560e-02 1.556953415274620056e-02 -2.614712342619895935e-02 -1.364707387983798981e-02 1.310772299766540527e-01 2.468837499618530273e-01 6.290569901466369629e-02 2.246985957026481628e-02
3.546016216278076172e-01 -9.701582603156566620e-03 -1.615849207155406475e-03 5.641940981149673462e-03 -4.726668819785118103e-03 -1.330208033323287964e-04 1.980080455541610718e-02 1.353208422660827637e-01 6.840915232896804810e-02 4.053980112075805664e-03
4.323790967464447021e-01 -6.290043704211711884e-03 4.473103675991296768e-03 1.948405988514423370e-03 -2.020318526774644852e-03 -4.184584133327007294e-03 -1.700106263160705566e-02 6.341168284416198730e-02 -6.429039686918258667e-02 3.402298316359519958e-03
