-2.512105703353881836e-01 -8.168656378984451294e-02 -5.644045770168304443e-03 2.550333738327026367e-02 1.883999258279800415e-02 -7.588336616754531860e-02 1.802619099617004395e-01 3.419094085693359375e-01 2.456633746623992920e-02 4.092052578926086426e-02 7.765687257051467896e-02
5.467502027750015259e-02 -1.986860670149326324e-02 6.317496299743652344e-03 1.478698849678039551e-02 -1.953952759504318237e-02 8.946198970079421997e-03 1.284715235233306885e-01 2.336972504854202271e-01 4.082438349723815918e-02 1.270221546292304993e-02 9.179139509797096252e-03
2.842135429382324219e-01 -1.743855699896812439e-02 3.820240497589111328e-03 1.882091537117958069e-02 -6.234864238649606705e-03 -1.464338228106498718e-02 2.591338008642196655e-02 1.511213630437850952e-01 -1.528361812233924866e-03 1.064394949935376644e-03 -5.249415524303913116e-03
5.753905773162841797e-01 -1.818643882870674133e-02 8.855967782437801361e-03 3.147042822092771530e-03 -8.554071187973022461e-03 -1.032856199890375137e-02 5.844118073582649231e-03 7.596438750624656677e-03 -1.347194798290729523e-02 7.781179156154394150e-04 -1.929269055835902691e-03
