-1.883090436458587646e-01 -1.124253422021865845e-01 -5.333508551120758057e-02 -2.164543047547340393e-02 -1.288699731230735779e-02 -9.180855751037597656e-02 1.417181789875030518e-01 3.172586262226104736e-01 -6.312945485115051270e-02 7.038002461194992065e-02 1.195163875818252563e-01
6.639364175498485565e-03 -1.823343336582183838e-02 -1.191533869132399559e-03 9.779192507266998291e-03 -2.596020139753818512e-02 8.553444407880306244e-03 1.407694369554519653e-01 2.525180280208587646e-01 2.805812284350395203e-02 1.730058714747428894e-02 1.993261277675628662e-02
2.005899250507354736e-01 -1.583896763622760773e-02 1.770704519003629684e-03 2.060192450881004333e-02 3.074305132031440735e-04 -2.430772036314010620e-02 4.188470169901847839e-02 1.460850089788436890e-01 -2.430270053446292877e-02 -5.187430069781839848e-04 -2.775630448013544083e-03
5.212172269821166992e-01 -2.278615906834602356e-02 1.021398231387138367e-02 2.820083405822515488e-03 -1.094275619834661484e-02 -6.130830850452184677e-03 8.125144988298416138e-03 7.406869903206825256e-03 3.245060890913009644e-02 9.055413538590073586e-04 -3.368919133208692074e-04
