-1.597068458795547485e-01 -1.136175356805324554e-02 3.779126331210136414e-03 5.193068087100982666e-02 4.500317573547363281e-02 -2.847867086529731750e-02 2.028331011533737183e-01 4.114392101764678955e-01 -1.935883797705173492e-02 -4.219263792037963867e-04 5.326645448803901672e-02 -1.273233145475387573e-01
-3.015359304845333099e-02 -1.437705848366022110e-02 1.135344430804252625e-02 2.604461833834648132e-02 -1.254007872194051743e-02 2.026976644992828369e-02 1.570400148630142212e-01 2.640224993228912354e-01 4.369577392935752869e-02 4.097985103726387024e-03 8.856532163918018341e-03 -6.137085705995559692e-02
2.036688178777694702e-01 -2.220137603580951691e-02 -5.397149361670017242e-04 2.012809365987777710e-02 1.488123554736375809e-03 -4.644223302602767944e-02 4.950983822345733643e-02 1.623062193393707275e-01 -4.042837023735046387e-02 4.450804553925991058e-04 -2.282142173498868942e-03 -9.830551221966743469e-03
4.839105606079101562e-01 -2.443347126245498657e-02 9.595549665391445160e-03 1.760246581397950649e-03 -1.162114553153514862e-02 2.813680563122034073e-03 7.472446188330650330e-03 3.818671777844429016e-02 3.764180839061737061e-02 9.452347294427454472e-04 8.916456717997789383e-04 2.603937871754169464e-03
