-2.061638534069061279e-01 -1.230630204081535339e-01 -4.684403911232948303e-02 -1.322659850120544434e-02 -1.766434684395790100e-02 -8.772590756416320801e-02 1.427564620971679688e-01 3.139755725860595703e-01 2.754064276814460754e-03 7.049313932657241821e-02 1.081397980451583862e-01
7.688336074352264404e-02 -8.701995015144348145e-03 1.741067133843898773e-02 1.893880404531955719e-02 -1.999597065150737762e-02 2.292816154658794403e-02 1.313704997301101685e-01 2.265391200780868530e-01 3.494182974100112915e-02 5.084012169390916824e-03 6.371819879859685898e-03
2.399310171604156494e-01 -1.892071962356567383e-02 2.472248394042253494e-03 1.665616594254970551e-02 -5.393827334046363831e-03 -1.717595942318439484e-02 4.410705715417861938e-02 1.442166417837142944e-01 2.637578174471855164e-03 1.963514136150479317e-03 -4.586871247738599777e-03
5.442127585411071777e-01 -1.835627481341362000e-02 8.754692040383815765e-03 3.429375356063246727e-03 -7.643828168511390686e-03 -1.030076295137405396e-02 -1.748512499034404755e-03 1.087740994989871979e-02 3.257442265748977661e-03 7.886541425250470638e-04 -1.901461975648999214e-03
