-2.782732546329498291e-01 -3.485370427370071411e-02 4.220077767968177795e-02 9.006259590387344360e-02 7.541608810424804688e-02 -2.376938238739967346e-02 2.038975507020950317e-01 3.726842105388641357e-01 5.045485123991966248e-02 -5.951363593339920044e-03
8.478759974241256714e-02 -2.580689080059528351e-02 -4.476339556276798248e-03 1.228791102766990662e-02 -1.749195717275142670e-02 -4.930729977786540985e-03 1.046595871448516846e-01 2.582729458808898926e-01 4.876251146197319031e-02 1.564913988113403320e-02
3.300346136093139648e-01 -1.236764714121818542e-02 -3.419823478907346725e-04 1.283700764179229736e-02 -2.626759465783834457e-03 -6.472187582403421402e-03 1.105662249028682709e-02 1.303964257240295410e-01 3.070343285799026489e-02 2.036798745393753052e-03
5.611772537231445312e-01 -2.374478057026863098e-02 2.754020271822810173e-03 4.505276679992675781e-03 -8.301232010126113892e-03 3.692700993269681931e-03 7.738498970866203308e-04 4.510670155286788940e-02 -1.312201097607612610e-02 1.891308231279253960e-03
