-5.675987005233764648e-01 -3.045215308666229248e-01 -3.494147062301635742e-01 -2.448534667491912842e-01 -3.150720000267028809e-01 -3.393039107322692871e-01 3.114823997020721436e-02 1.575199961662292480e-01 -2.507801353931427002e-01 3.572788834571838379e-01
-2.510681748390197754e-01 -1.275144331157207489e-02 3.796545322984457016e-03 4.429485648870468140e-02 -1.992739923298358917e-02 9.072825312614440918e-03 2.545131444931030273e-01 3.947755694389343262e-01 9.366957470774650574e-03 3.423398127779364586e-03
1.182431951165199280e-01 -4.135913401842117310e-02 -1.532411435618996620e-03 2.037578821182250977e-02 -1.643981318920850754e-03 -5.226977169513702393e-02 9.043255448341369629e-02 2.111202180385589600e-01 5.168128758668899536e-02 1.685491297394037247e-03
4.031102061271667480e-01 4.822302609682083130e-03 -4.045845009386539459e-03 2.371937502175569534e-03 2.309824572876095772e-03 1.946059055626392365e-04 5.274306982755661011e-03 5.037909746170043945e-02 1.215010881423950195e-02 4.856139421463012695e-04
